#ifndef LOGISTIC_MODEL_H
#define LOGISTIC_MODEL_H

#include <stdint.h>

#define SCALE_FACTOR 1000  // Facteur d'échelle pour convertir en décimal

constexpr int16_t weights[] = {130, 587, -908, 987, -649, 446, -328, -267, 159, 750, -277, -21, -398, -385, 749, -1265, -254, -275, -759, 59, -1379, 641, 83, -82, -184, -328, 48, 412, -135, 148, 1204, 396, -227, 47, 1095, 32, -255, 102, -187, -1834, 1499, 108, -1578, -851, 96, -872, 235, -71, 524, 605, -41, 322, -484, 145, -13, -165, -377, 119, 1351, 569, 780, 89, 1336, -518, -1024, -541, -93, -482, 1181, -238, 201, -194, -288, -318, 291, 122, 774, -35, 898, -38, -204, -96, -73, 980, -640, -358, 681, 493, -522, -43, 196, -330, 27, -300, -321, -28, -445, -831, 144, -179, 482, -25, 657, -225, -55, -216, -1099, 537, 923, -503, -446, 385, -885, 452, 627, -100, -665, 712, -143, -1119, -306, 328, -51, -497, -555, -1782, -52, 178, -121, -505, 822, 1541, 129, -1136, -1715, 3567, 347, 376, 190, 372, -100, -58, 629, -929, 319, 418, 369, -872, 33, 693, 206, 128, -133, 13, 385, 638, 1446, 447, -575, 630, 458, -464, -128, 594, 173, 319, -659, -140, -3765, -691, 43, -296, -71, 448, -417, -65, -502, 556, 100, 612, 801, 65, -26, -91, -1902, -384, 228, -846, -578, -1597, -1766, -849, -1597, -199, 556, -95, 2368, 405, 911, 618, 912, -529, -264, -239, 895, -568, -735, 174, -805, -956, 464, 96, -434, -946, 121, -272, 357, 139, 645, -551, -299, -62, -113, 937, -1189, 281, -542, -97, -752, -450, 17, -1429, -84, 177, -854, -583, -485, -1446, 267, -135, 438, -407, -423, 16, -26, 37, -512, 551, 321, -53, -494, 238, 1031, 783, 508, -655, -586, -141, 397, 2117, -85, -1052, -72, -224, -2624, -261, 731, 911, 758, -44, -1089, -654, -253, 164, -898, -558, 496, 694, 311, 801, 367, 693, 315, 745, -539, -747, 1542, -51, -92, -2876, -6748, 325, -543, 546, 529, 330, -852, 684, 2114, -583, -484, -137, 404, -72, -130, 162, -656, -581, 441, -134, -355, -6174, 160, -2990, -568, -60, -144, -260, 987, 1065, -1604, 71, 76, -50, -829, 392, -429, -334, -433, -77, 592, -1905, -277, 287, -469, -327, -270, -245, 748, 223, -661, -20, -1630, -144, -541, -648, -528, -805, -170, 224, 285, 743, 569, -29, -436, -625, 373, 232, -81, -15, 24, 103, 187, 389, 3943, 28, 658, -632, -332, 279, 48, -381, -132, 632, -1509, -1014, 136, 250, 134, -232, -219, -1167, -332, -578, -254, 772, 209, 412, -8, 483, 169, -840, -390, 256, 255, 106, -43, 4716, 202, -391, 366, -1803, -26, -106, -269, 206, -384, 50, -427, -329, -1094, -210, -140, -431, 1045, 9, -493, -275, -99, 442, 216, -288, 2462, -520, 115, -306, 494, 367, -1134, -519, 177, 406, -1556, -75, 939, -1332, -1298, -584, 220, -996, -540, 499, -553, 650, 321, 791, -51, 1085, -436, -210, -1081, -328, 658, 542, -244, 360, 217, -89, 24, -741, -1090, -675, -184, -156, -54, 50, -578, 111, -173, 191, -1011, -783, -441, 1037, 10, 143, 474, -246, -1236, -823, 39, 977, -246, -5670, -1412, 111, 381, -636, 84, -24, -2063, -439, -54, -42, 1083, 234, 1350, 70, -281, -859, 769, 692, 716, -99, 257, 182, 305, -1742, 176, -373, 40, 875, 617, 803, 394, -80, 225, 8, -204, 325, 1304, 123, 122, 214, 695, -295, 109, -179, -308, -764, -717, 97, 3000, 1260, 487, -319, 477, -79, -294, -391, 174, 30, 425, -167, -536, 200, 93, 526, 561, 958, 1207, -178, 263, 461, 143, 811, 364, 1241, -430, -272, 695, -232, 537, 267, 1086, 1207, 764, -312, -85, 72, -193, 754, 656, 457, -1929, -91, -118, -869, 201, 379, 216, -335, -569, 587, 465, 515, 153, 27, -232, 86, -175, -658, 1130, 216, 353, 127, -28, -509, 67, -1, 569, -346, 222, 278, -213, 380, -148, -981, 52, 296, 260, -113, 190, -345, -11, 315, 495, -596, -97, 330, 46, -663, 291, -355, 292, 34, -560, -327, 897, -1004, 1172, 1827, -527, -183, -1106, -852, -619, 507, 163, 166, -1072, 241, 875, -1008, 241, 367, 448, 68, 248, -531, 1178, 969, 394, -756, -366, 177, -423, -75, 809, 47, 261, 241, 1340, 160, -120, 1142, -268, -305, -384, -772, -157, 1277, 606, -106, 778, 35, 299, 41, 412, -645, -146, -42, -761, 431, -217, 189, 372, 874, -778, 1066, 651, 36, -967, 311, -277, 7, 871, -159, 1161, -86, -85, 900, 1051, 206, -1321, 276, -537, 196, -598, -410, 38, -361, -437, -211, 424, -1041, 725, -415, 194, 1019, -254, 1527, 524, 373, -2296, -1113, 926, 143, 614, -661, -81, 7, 259, 1048, -294, -285, -86, -1154, -17, 751, -174, 348, -295, -685, 1537, 428, 446, -178, 371, -233, -1070, -547, -323, 495, -95, -606, -193, 116, -552, -398, 653, -1984, 303, -861, -310, 516, -519, -393, -595, -84, 76, -490, 243, 554, 105, 122, -248, -350, -250, 195, 639, 381, 479, -339, -418, 282, 645, 678, 37, 82, -376, 2421, -1112, 258, 165, -199, -456, 340, 360, 789, -1733, -531, 167, 107, -107, 444, 218, 376, 66, 530, -596, 117, -19, -407, -599, 140, 474, 258, 288, -517, -368, 291, -505, -184, -692, -704, -540, 631, -324, -791, -379, -680, 187, -446, -512, -370, -346, -211, 435, -299, 391, 219, 171, 351, -18, -869, 786, 848, 971, 702, 372, 220, 125, 560, -59, 242, 643, 401, -607, 1201, 206, 3, 197, 1534, 597, -312, -229, -229, 679, 241, -458, 566, 354, 284, 311, 855, -435, -795, 135, 886, 1046, -1193, 1316, 289, 582, -413, 432, 386, 392, 201, 438, -213, -155, -308, 232, -1192, -273, 219, -421, -503, 306, 223, -289, -748, 202, 408, -83, -324, 699, -1361, -743, -182, -259, 116, 79, 191, -126, -297, -190, -590, -743, 470, 293, 397, 15, 192, 80, 138, 30, 252, -588, 378, -286, -371, -961, -183, -51, 306, -76, 1003, 10, -1161, 331, 134, -557, 317, 173, 614, 198, 626, -432, 441, -471, 449, -98, 1193, -2, -367, 758, 954, 259, -539, -160, 499, 424, 102, -668, 98, -318, -112, -383, -132, -495, -251, 235, -612, 357, 398, 133, 972, -58, 369, -625, 891, 932, 733, 652, -108, -508, -68, -222, 127, 853, 1114, 448, -2411, -1626, 24, 768, -449, -688, -350, 642, 599, 502, 227, 435, 386, -637, -1217, -758, -396, 303, 141, 190, 1208, 488, 765, -521, 249, 42, 277, 1196, -232, -625, 368, -333, 565, -30, 67, 55, 304, -306, -177, 34, -22, 197, -313, 316, 453, 180, -624, 64, -213, -15, 70, -928, -595, 45, 352, 226, -225, 243, 576, 107, 402, 96, -861, -201, -683, 447, 260, 284, 161, -354, 194, 392, 250, -365, -11, -1134, 206, 569, -541, -15, 438, 321, 752, 641, 15, 507, 583, 827, 215, 664, 843, -492, 375, -47, -35, -872, 222, 517, 408, 226, 575, 1441, -117, 401, -506, -4, -299, 1609, 17, 69, -647, 1089, -976, 21, -331, 326, 560, -251, -511, -174, -1453, 243, 81, -123, 457, -747, -377, 80, -77, 619, 136, 352, 613, 1173, 1322, 491, -449, -72, -666, 397, 1022, 3195, -811, 596, -272, -308, 508, 61, 1312, 2594, 800, 759, 138, 728, -1, 57, 182, 132, -217, 746, 344, 448, 700, 217, 289, 491, -40, 423, -563, -256, 581, 15, -732, -520, -458, 9, 308, 173, -99, 341, -1094, 770, 443, -334, -461, -327, 19, 584, 257, -896, -83, 203, 148, 271, 1040, 720, -532, -146, 188, -1227, 168, -951, -1348, 113, -339, 285, 160, -207, 857, 662, -1816, -761, -373, 1632, -113, 390, -235, 288, 34, 407, 36, -687, -169, 793, -571, -774, -1024, -370, -279, -2194, -82, -313, 1150, -167, 1037, 333, -4333, -1120, -85, -570, 357, -334, 1771, -77, 621, 65, -1121, -332, -1392, 76, -1230, -516, -178, 1031, 228, 211, -629, -332, 0, -515, 161, 382, 256, -343, -553, -101, 103, 660, 421, -681, 254, 826, -124, 146, 68, 740, 293, -162, -522, -114, 402, -88, -1735, -272, -231, -802, -213, 383, 885, 690, -91, 359, -1506, -253, -24, -5, -658, 107, 468, -47, 188, 768, -1116, -171, -869, -821, -189, -882, -789, -525, -390, 503, 831, -50, 679, 494, -1879, 1429, -1012, -1072, 94, 597, -933, 61, -570, -419, -407, -527, -1275, 990, -272, -562, -1041, 27, -267, -96, -223, -203, -31, -451, -304, -384, -641, -301, 125, 40, -563, -4253, -1859, -240, 246, -289, -530, 239, -437, 305, 76, 1555, -360, 461, 348, 446, -733, -165, -567, 158, 216, 538, 299, -311, -730, 208, 1872, 468, 854, -18, -203, 817, 42, -276, 506, 333, 113, 156, -353, 720, 1202, 17, 311, 1415, -813, -297, -639, 175, 1062, 195, 656, -1865, -58, -336, 686, 418, -97, 10, 621, 276, -208, -409, 502, 723, 758, 17, -662, 172, -112, 317, -70, 117, -919, -880, -896, 1319, -186, 563, 128, -3121, 347, 288, 182, -91, 715, 1791, -647, -296, -102, -203, -13, -369, -46, -970, 664, 685, -454, -99, -242, 385, -1255, -293, -314, -50, 555, -415, 515, -971, 528, 762, 328, 463, 267, 4310, -296, -37, 320, 886, 623, 286, 39, 175, 2432, 715, 231, -392, -1635, -160, -860, 152, -270, 174, 345, 44, 1425, 435, 299, -385, 26, 475, 474, 922, 35, -527, 525, 2481, 629, 439, 177, -267, 584, -189, -477, -529, -62, -186, 16, 435, -269, 207, -87, 599, 289, -366, -139, 579, 42, -337, 91, 906, 1436, 660, 547, -437, -422, 9, -31, 455, 354, -387, 58, -290, 430, -1169, 5733, -197, 110, -153, -525, -462, -1525, -116, -282, -50, -259, -206, -923, -372, 173, 576, -87, -528, 751, 69, 406, 95, 481, -498, -1027, 1118, -255, -611, 860, 458, -81, -545, 279, -208, 491, -179, -301, -10, -78, 257, 1424, -108, 984, 79, -100, 848, 662, -145, -127, -210, -166, 855, -157, -4365, -1187, -29, -582, 375, -77, -138, 268, -954, -367, -1310, -154, -487, 137, 1297, 933, 458, 679, -43, 3, 184, 3081, -1841, -258, 42, 1, -179, -111, 21, -165, 1832, -100, -231, -197, -61, 286, -786, -97, 392, 807, 789, -1317, 4430, -458, 2087, -32, -405, 365, -289, 195, 268, 117, -565, 477, 338, 140, 851, -713, 992, -1058, -780, -32, -109, 371, -137, -653, 598, -332, -367, 0, 589, -337, 217, 1187, -308, -139, -10, 77, -321, -192, -374, -720, 525, -610, -519, -1261, -177, -381, -870, 468, 702, -219, -88, 1018, 1703, -84, 85, -293, -67, -265, 439, 629, 810, -596, 375, -455, -453, 332, -306, -375, -801, -372, -1833, -47, 1253, 1881, -168, 10, -727, -445, -142, 683, -1114, -15, -252, 369, 352, -225, 68, -1225, 511, 274, -358, -404, -179, 897, 93, 622, -102, 163, -770, 230, -18, -132, 135, 533, -230, -521, -96, -78, -1066, -192, 789, -102, -86, -177, -248, 433, 196, -2481, 159, -222, -101, 426, -336, -124, -47, 179, 448, -881, -504, 103, -695, -354, 320, 230, -139, 509, 802, 829, -783, -679, 18, -88, 458, -492, -243, -1005, 5, 412, -51, 107, 130, -699, 1365, 545, -433, 160, 307, 1433, 16, -566, 819, 711, 1629, 592, 660, -246, 372, 434, -522, 133, 153, -653, 864, 823, 568, 3328, -276, -592, -353, -253, 458, 295, 3015, -74, 106, -918, 1325, 484, -76, 474, 439, -342, -1059, -970, -365, -133, 255, 252, 1296, 937, -499, 805, -453, -2088, 477, 20, 322, -324, 107, -89, 109, -27, -258, -649, 244, -151, 2332, 374, 75, -1368, -203, 321, 1404, 1244, 331, 263, -192, 454, 115, 981, 286, -50, 534, 238, 2, -625, 449, -1210, 164, -315, 120, 721, 161, -645, -126, 352, -269, -624, -599, 1955, 513, 304, -295, 352, -34, 435, -742, 255, -88, -800, 997, 646, -118, 872, 349, -1034, -699, -47, -1125, 185, -258, 248, -158, 203, 924, 512, -183, 2260, 298, 280, -183, 281, -334, 91, -811, 1029, 395, 196, 685, -336, -108, 648, 171, 217, -1687, 802, 616, -207, 405, 833, -58, -30, 30, -270, 247, 10, 235, -73, -760, -569, 193, -929, 275, 6081, 295, 1828, 389, 328, 105, -12, 687, 301, 346, 3, -97, -533, -320, -79, 854, 101, 494, 1256, 1301, -258, 59, -200, -906, 830, 237, 211, -326, 138, 42, 194, -1608, -192, 420, 626, -151, 209, 170, -948, 964, -519, 109, -201, 798, -376, -435, -900, -976, -426, 191, -229, 308, -795, 312, -1896, -1090, 986, 841, 127, -859, -342, -247, -158, -675, 490, -897, 26, -328, -856, 535, -268, -333, -202, -421, 1394, 30, -347, -41, 0, -255, -909, 99, -346, -79, -1167, 916, 661, -609, 963, 267, 669, -444, 353, -286, 491, 1596, 681, 606, 412, 204, -362, -699, 255, 763, -317, -520, 435, 356, 1460, 598, 813, 641, 340, 786, -18, -90, -707, -231, -580, -169, -105, -344, 363, 60, -370, -278, 240, -545, 599, 106, -4, 687, -908, 170, 87, -442, 328, 74, 320, 348, -82, 702, 50, -554, 203, 1146, 277, 3375, -160, -242, 318, 2651, -572, 65, -278, -223, -58, -870, -694, 988, -390, 654, 222, -160, 834, 170, -607, 605, -374, 346, 256, -203, -611, 768, -1219, 269, 1094, -46, -259, 192, -104, 813, 246, -202, 1226, 204, -1900, 1186, -1, 127, 105, 922, -237, 695, 194, -802, -328, -493, -309, 381, -320, -307, -555, -3803, -931, 258, -201, -264, -64, -358, 139, -544, 176, 777, 54, -1110, 217, 253, 154, 142, -570, -253, 301, 29, -620, 564, -809, -176, -101, 1617, -92, -58, 1150, 1085, -421, 565, 213, 505, -187, -502, 375, -770, -30, 1277, -1438, 173, 197, -428, 987, 367, 650, -2505, 861, 320, 415, -189, -1341, 113, -850, -1256, 29, -260, -86, -740, 371, 262, -1397, 268, 106, 170, -230, -332, -677, 950, 69, 225, 33, 58, 228, 977, 2, -523, -330, 74, 1055, 117, -40, -208, 1088, 43, -488, 58, 444, 22, -761, -524, -969, -727, -308, -368, -161, 566, -63, -1468, -1065, -737, -715, 381, -820, 398, 260, 1047, 488, 559, 1200, 322, -147, -641, -135, 419, -277, -348, 124, -1298, 478, -893, 114, -43, -427, -278, -492, 1053, 0, 913, 500, 121, 569, -107, -2, 261, 675, -769, 288, 72, 83, -101, 1751, -148, 781, 41, 132, 584, 199, -957, -167, 133, 897, 191, -293, 332, 363, -3348, 611, -135, 85, 168, -2854, -338, 1015, -390, 593, -349, 1162, -1176, 1020, 223, 297, 473, 229, 772, 803, -629, 481, 427, 391, 377, -640, 608, -388, 198, -953, -63, -175, 218, -868, -571, 963, 70, 548, 358, -95, 331, -141, -394, -1867, -515, -829, -277, 374, -409, 528, 747, 790, 599, 189, -127, 759, 146, 138, 141, -60, 1459, 119, 1417, 736, -310, -227, 468, 186, -203, -238, 335, 541, 359, 242, -21, -269, -205, 18, 158, 274, 238, 189, 641, 604, 651, 71, -339, -521, 255, -290, 742, 100, 91, -162, -774, 35, -847, 704, -811, 535, 471, 352, 1122, 2670, 535, 87, -165, 772, 289, 377, -255, -68, -1289, -536, 554, 558, -280, -187, 142, -1016, -137, 1718, 994, 498, 649, 89, -12, 519, 176, 503, 484, 12, -493, 96, -183, -97, -1118, -2, 595, -295, 53, -348, -408, 590, -595, 297, 236, 123, -96, 144, -536, 337, -373, 155, -209, 711, 313, 648, -292, 333, -103, 47, -270, -746, 32, -484, 147, 845, -263, -782, -84, 522, -656, -355, 93, -105, 692, 39, -91, -613, 1052, 549, 234, -441, -380, 219, 151, 1038, 126, 880, 778, 38, 16, 610, 685, -197, 872, 716, 1392, 537, 534, -336, -198, -330, 76, -4040, -1131, 542, -425, 67, -254, -3295, -465, -190, -572, 295, -113, -701, 509, 1042, -568, 608, -421, 964, 998, -48, -14, 729, -2486, -47, -181, -931, -478, -480, 487, -183, 334, -255, -333, 868, 415, 735, -840, -114, -491, 142, 58, -212, -504, 1005, 171, -34, -175, -1513, -1138, 142, -21, -115, -307, 646, 55, -1183, 534, 536, 512, 665, 69, -21, 741, 125, -959, -687, -43, -496, 528, -767, -947, -924, -226, 128, 516, 310, 595, -553, 518, 97, 358, -920, 2153, -992, 420, -493, -428, 162, 55, 790, 1066, 405, -104, 320, 1263, -117, 709, -403, -625, -1306, 618, 309, 48, 346, -52, 223, -544, 57, -264, 125, -287, -272, 217, 605, 969, -415, -513, 177, -105, -115, -323, -22, -69, -744, 892, 725, -687, 769, 489, -243, -72, 144, -2567, -603, 209, -15, -27, -828, -556, -564, 1410, -461, -636, 638, -116, -2086, 625, 4008, 425, -1425, -125, -233, -493, 209, 137, 264, 949, 424, -318, 130, 759, 246, -1850, -267, -90, -204, 781, 609, 233, -695, -499, -280, 184, 28, -141, 400, 732, -431, 63, 99, -564, -73, 867, 481, -33, -22, -343, 122, -139, 982, 309, 1547, -43, -492, -585, -107, 851, 697, -1301, -715, -988, -445, -691, -244, 783, -389, 1091, 1230, -237, 867, -29, -226, 153, 269, 468, -589, -311, -400, 459, -35, 337, -568, 1172, 106, 208, -88, 597, 382, -312, -73, 387, 236, -303, 369, 1068, -83, 324, -833, 1807, 469, -1036, 275, 55, -550, 1574, 2140, 603, -178, -1667, 1008, -27, 374, 80, 1456, -176, 1157, 552, -1131, -250, 518, 873, 1139, 435, -163, -937, -1076, -99, -555, -608, -150, -69, -442, 103, 174, -424, -2772, -2, 719, -394, 127, -377, -603, 281, -304, -40, -536, 1113, 329, 611, -121, -678, -946, -707, -409, -662, -344, -180, 944, -3167, 698, -625, 246, 984, -307, -71, 113, 773, -551, 44, -310, 332, 193, 98, -462, -262, -205, -38, -921, 395, 14, 432, -407, -42, -1669, 1193, 0, -239, 254, -138, -113, 47, -189, -1135, 269, -267, -41, -288, -191, 51, 85, 327, -74, -3219, 52, -106, 70, 382, -2061, -869, -210, -73, -520, -468, 181, -423, 524, -483, 407, 387, 21, 126, 325, -32, 542, -73, 446, -208, -326, 8, -93, -401, 12, -954, -46, 763, 101, 1090, -69, 489, -251, -436, 172, -2674, 189, -17, -908, 394, -1022, -1415, -31, 443, 808, 428, 79, -16, 801, -341, -285, -295, 76, 173, -210, -857, 50, -1089, -132, 306, -198, -606, -712, -615, 18, -347, 248, 364, 391, -1119, -55, -389, -121, 864, 557, -61, -182, 101, -1395, -2459, -490, -1173, -71, 498, -714, -422, 823, 400, 161, -997, 171, 312, 261, 406, 101, 1348, -426, -517, 78, 92, -84, 418, 523, 370, -255, 552, -142, -297, 1465, -200, -484, 95, -815, -825, 764, 380, 329, -316, 1016, -877, 374, 571, -332, 466, -231, -254, -99, 901, 521, 908, 211, 214, 640, -460, 187, 602, 116, 573, -89, -2, 161, -319, -188, -703, 379, -158, 802, 149, 230, -22, 627, -28, 235, 524, -247, -947, -105, 1796, -102, -87, 92, 254, 279, 437, 535, 637, -96, 273, -153, -516, -395, -725, 175, -713, -35, 1951, -393, -209, 404, 165, -355, 124, -1143, -1520, 330, 296, -1020, -456, 688, 26, -220, -83, -808, 36, 36, -379, 524, 176, -4817, 1375, -491, 121, 742, -536, -553, 793, -1193, 39, -191, 0, -1467, -180, 752, 168, -63, -275, -473, 20, -702, -368, 494, -1812, -614, -52, 436, 363, 217, 490, -1614, -1132, 450, 60, 156, 492, -159, 36, -15, -359, 603, -213, -1597, -174, -104, 663, -2941, -141, 629, -1741, -1562, 686, -562, 408, 434, 276, -446, 249, 567, -879, -51, -557, -83, 257, -42, -242, -498, -659, 574, 141, -208, 90, 724, -4, 77, 81, -523, 102, -289, -71, -600, -51, -1985, 939, 544, 308, 622, 840, -1499, -220, 402, -565, -630, -368, -105, 10, -54, 129, -461, -260, 1980, -860, 973, -120, 701, -567, -125, -1091, 1150, -588, 383, -98, -731, 781, 171, -626, 517, 174, 988, -295, 379, 361, -424, -579, 580, -1654, -1744, -713, 569, -355, -145, 130, 543, -547, -100, 842, -401, -187, 491, 727, -217, -1071, -784, 100, -11, 386, 365, 136, 366, 223, -220, 344, -227, -557, 542, 239, -163, 527, -257, 180, -41, -1081, -226, -117, 362, 568, 433, -208, 747, -2366, -336, 715, 315, 216, 56, -315, 1253, 201, 955, -321, 995, -900, -383, -308, 427, 355, -257, 261, -131, -409, 97, 232, -420, 467, 440, 113, -132, 763, 4681, 2542, 1826, -183, -276, -434, 164, -146, 221, 608, 173, 204, 259, -24, 227, 603, 390, 376, 474, -646, 101, 328, 368, 509, -551, 306, -58, 225, -725, -803, -787, -747, -327, 219, -707, 193, 49, 290, 402, 334, 0, -465, -430, -226, -528, -1164, 763, -568, 36, 255, -88, 87, 355, -539, 420, 419, 204, 49, -1132, 310, -645, 559, -355, -970, -135, -151, 905, -253, -882, -228, 438, 1870, 852, 1690, 229, -954, -2118, -60, -28, -67, -171, 304, 78, 136, 584, -1280, -3045, 706, -306, 104, -41, 1244, -233, 535, -274, 520, 152, -70, -359, -201, -564, -5342, -4216, -291, -252, -472, -40, -418, -677, -257, 144, 949, 803, -711, 1212, -1447, -128, -677, -104, 146, 263, -1661, 57, 216, 146, 186, 865, 1145, -733, -118, -381, -439, -33, -111, -710, -429, 627, 67, -126, -2394, -563, -388, 603, 94, 28, -1789, -4, -901, -862, -672, 901, -2, 152, 2, -234, 332, -851, -664, 26, -2068, -146, -599, -296, -361, 167, 205, 419, 540, 42, -853, 530, -53, 0, 116, 938, 580, -74, 299, 419, 94, 147, 431, 149, 296, 89, -1540, -314, -890, 15, -746, -918, 118, -83, 120, 226, -97, 347, -192, 571, 413, -444, -873, 638, -1968, -876, -892, -252, -968, -51, -1645, -921, -881, -364, -899, 660, 288, -4, -365, 73, 342, -135, 500, 240, 1074, 628, 474, -10, 325, 520, -883, -68, 242, 209, 233, -508, -245, 556, -953, 352, 109, 416, -682, -46, 431, -41, 66, -172, 343, 46, 472, -441, -69, 238, 351, 348, 138, -88, -250, -810, -483, -154, -41, 323, -397, -368, -937, 1465, -121, -88, 778, 1135, 822, -229, 217, 354, -277, 345, -942, -229, -208, 319, -204, 334, -647, 172, -109, 1389, -59, -423, -1042, 1283, -183, 617, 102, -71, 29, -820, -133, 263, -1031, 262, -16, 669, -809, -126, -161, 2038, -691, 129, 0, 519, -439, 719, -12, 133, -73, 121, 514, 279, -443, 126, 286, 477, 547, 839, 1807, 693, 408, -127, -344, 496, 91, -2138, 151, -159, 582, 315, 748, 159, -123, 47, 560, -67, 2258, 300, -505, -164, -332, -634, 302, -2605, 450, 4, -759, -417, -231, -299, 840, -180, 622, 2661, 685, -700, -397, -115, -655, 239, 267, -249, 184, 209, 146, -534, -515, -574, -41, 550, 1239, 990, 1409, 310, 21, -247, -66, -226, -393, -1095, -146, -11, -164, -1205, 991, 1190, 639, 291, -1772, -565, 185, -109, 136, -44, -1218, -250, -27, 188, -585, -67, -106, 536, -524, 260, 166, 22, -27, -348, -66, 297, 244, -488, -846, -668, -729, -26, 614, 51, -126, -321, -142, 638, -215, -173, 297, 494, -374, -879, 247, 761, 360, 583, -853, -460, -843, 134, -719, -296, -18, 72, 522, 589, -51, 1163, 454, -713, 259, -258, -396, 76, -1068, 456, 176, 488, 621, 499, -1057, -103, -174, -154, 680, 726, 374, 539, -343, 513, -175, 1764, -369, -3574, 172, 349, 1850, 266, 412, -1049, -1071, -625, -416, 334, 40, 779, -356, 772, 139, 978, 439, 221, -714, -236, -385, -903, -189, -398, 182, -75, -895, 799, -54, 45, -386, 233, 476, 92, -10, -160, 1124, -614, -592, 98, -910, 238, 485, 505, 547, 181, -87, -1156, -349, 506, 713, 250, -101, -421, -307, -754, 819, 456, -309, -386, 42, 255, 73, -69, -119, -496, -1787, 721, -164, -1241, 1022, 892, 277, -899, -12, 673, 486, 591, -250, -608, 607, 431, 457, 745, -206, -217, -903, -1097, -1884, 152, 339, -169, -1082, 656, 377, -947, -429, -365, -456, -284, -685, -84, 273, 408, 90, 313, -596, 143, 612, -748, -166, 640, 123, 393, -1310, -369, 1032, 1745, -620, 298, -3930, 818, -465, -471, 145, 17, 833, -603, 401, -548, 1318, -410, -67, -203, -90, 442, -160, 322, 221, -283, -194, -875, 188, -508, 740, -22, 887, 109, -185, -457, -23, -58, -1126, -88, -536, -1467, -537, -3106, -584, 681, -382, -1398, -537, -857, 377, 1342, 606, -307, 362, -484, 212, 462, 14, 81, -1053, -472, 271, -717, 6, 634, -72, 1614, 827, 402, -350, -149, -1189, -631, 226, -1194, -167, 263, 58, -653, 86, -633, 158, 1599, 135, 1253, -241, -26, 571, 177, 1077, -1090, 760, 527, 1330, 318, 116, -513, 390, -248, -53, -258, 312, -664, 52, 145, 228, -1035, 487, 9, 141, 504, 635, 371, 26, -298, 78, 10, 122, -1358, -1190, 733, 175, 1825, -687, 582, 671, 328, -500, -272, 501, -265, 767, -998, -363, -130, -140, -529, 597, 344, -219, 250, 1298, -868, -362, 26, 392, -518, 188, -784, -208, 529, 796, -98, -52, -109, -205, -223, -2, 156, -445, -612, -303, 223, 379, -376, 731, -776, -444, -361, 188, -630, -840, 176, -180, 265, 1118, -28, -320, -883, -357, 399, 215, -2250, -797, 739, -227, 584, 607, 2411, -1407, 577, -501, -515, -35, -138, 881, 349, -234, 519, -846, -702, 401, -281, 527, 1055, 528, 738, -1399, -303, 82, 347, 264, -283, -6, -681, -357, 300, -1524, 207, -1219, 896, -14, -643, 83, -344, -232, -372, -780, -55, 35, -1225, -523, 212, 244, -34, 44, -1269, 581, 412, -159, -571, -1215, 890, -869, -251, 1180, 318, 995, 201, 666, 594, 745, -293, 1023, -1073, 259, 182, 95, 378, -131, -314, -615, -335, 913, -20, 996, 65, -121, 40, -404, -488, -630, 2070, 556, -45, -102, -972, 673, -2504, -1222, 1905, 911, -955, -9, -214, 578, -300, 103, 551, 694, -140, -1992, 367, -551, -854, 316, -547, 1128, 283, -999, 457, -22, 501, 567, 415, 17, -317, 92, 287, 313, 14, -832, -53, 725, -356, -694, 78, 139, -429, -157, 1285, 16, 100, -236, -1324, -1115, -102, -161, -492, 334, -8, 117, 490, 1054, -127, 796, -79, -741, -29, 133, 55, 1033, 392, 560, 626, -62, -198, -215, 254, -510, 715, 944, 965, -159, -19, 48, -170, 1009, -964, -298, -610, -381, 21, -409, -571, 1069, -376, -809, 44, 330, -425, -756, -123, 917, -175, 1001, -449, 461, 743, 978, 1268, -184, -977, 470, 512, -1125, 233, -272, -135, -364, 315, 121, -1023, 207, 1163, -755, 766, -495, 1017, 585, -291, -430, -2011, -264, -489, 1337, -1284, -576, -196, -1116, 232, -1051, -1505, 349, -653, 119, -20, -664, 226, 581, -714, -312, 76, 402, -104, -567, -101, -618, -96, -657, -172, 261, -110, 14, 144, -36, 606, -400, 1332, 146, -1093, -666, 32, -478, -283, -218, 146, 1751, 383, 108, -41, 455, -408, -198, -341, -846, -235, 131, 969, -115, 160, 1296, 480, -125, -3355, 175, 342, 8, 181, -171, -563, 456, -156, -853, 239, 781, -1174, -239, -471, -83, 1094, 2092, 68, 525, 258, 928, 1115, -313, 625, -2358, -604, 75, -491, 49, -324, -269, -190, -547, 11, -155, -38, 422, 587, -901, 103, -217, -36, 174, 805, 307, 4, 56, 494, 3094, 1458, -684, 667, 968, -78, 58, -306, 109, 314, -3709, -1518, 252, 313, -325, 324, 394, -214, 577, 2483, 2469, 794, -367, 869, -247, -702, 147, 303, 463, -413, -3, -227, 264, -775, -812, 138, 541, 178, 1801, -131, 1372, -98, -516, -219, 507, -311, 570, -40, -748, -705, 267, -193, -598, -46, 79, -153, 317, 373, -284, 46, 1175, -901, -1167, -358, -583, -392, 137, 823, 612, -383, -185, -302, 721, 354, -613, -902, 185, 17, -153, -170, -255, -711, -441, 988, 1773, -650, -122, 533, 660, 331, 479, -1947, -768, 467, -1147, 139, 658, -113, 257, -459, 835, 1326, -378, 468, 587, -181, 56, 318, -34, -231, -4458, 2089, 1001, -83, 237, -813, -158, 503, -271, 363, -142, 1660, -709, -743, -102, 1385, -31, -796, -584, 185, -847, -507, 516, -212, -760, 1098, -436, -26, -280, 644, 1132, 784, -196, -380, 157, 102, -607, 575, 1337, -463, -1229, -498, 231, 602, -235, -86, -1407, 355, -40, 512, -229, 312, 16, 1439, -64, -319, -392, 1533, 1174, 63, 673, -6, 126, -58, -1114, -1188, 519, -675, 3368, 1302, 1050, -801, 125, -409, -107, -1355, -105, -713, -376, -47, -200, -182, 327, 605, 1470, 308, 159, -29, -488, -163, -940, 950, -47, 281, -46, -316, -1014, -1075, 2554, 643, 348, 151, -36, 538, -207, -166, 146, -262, 512, -70, 933, -318, 715, 1142, 81, 392, 138, -69, 176, -664, 555, 336, -382, -186, 249, -319, -934, -176, -322, -299, 1122, -248, 282, 1050, -27, -1162, 637, 682, 412, -2690, 382, -337, -125, 217, 10, 715, 185, 395, 206, 171, -863, -15, -1479, 618, 29, -586, -371, 671, -204, 1961, 1295, 605, 427, 158, -197, -113, -948, -464, -1543, -290, -816, 228, -906, -451, -193, -206, 480, 134, 73, 1128, -257, 140, 478, -1642, 283, 241, 414, -674, -1078, -330, 228, -1403, -2209, 146, -218, -300, -1732, 223, 365, -78, -41, 253, 439, -171, -87, 1885, 522, 437, 439, -27, 181, 59, 540, 151, 1791, 468, -629, 100, 1045, 1018, -3777, -2561, 164, -328, -59, -607, -1544, -1512, -2063, 74, 2410, 484, -84, 444, -100, -2714, 363, -1354, -764, -1118, 638, 400, -235, -1215, -160, -483, 766, 242, -453, -231, 1452, -1754, -406, 548, -278, 230, 815, 108, -218, -564, -944, -167, 715, -59, -730, -1313, -479, -794, -158, 597, -794, -479, 334, -14, -530, -1084, -204, -1554, -1027, 1033, -964, 100, -112, 525, -129, 854, 310, 56, -404, 386, -570, -264, 1037, 750, 170, 649, 130, 1126, -112, -220, 202, -140, 1491, 376, 146, -110, -811, 375, 339, 1409, 185, -416, 119, 1075, 436, 144, -228, -159, -115, -450, -359, -466, -48, 389, -295, -244, 191, -774, -375, -405, 480, 731, -536, 727, 0, 832, 727, 301, 317, -343, 992, -74, -893, 384, -275, 406, 744, -419, 859, -671, -242, -63, 370, -314, -1681, -60, -36, 513, -33, 593, 118, 837, -939, 823, -453, -659, -480, 920, 157, -48, 589, 828, 123, -943, 0, -252, -61, -554, 353, 135, -1804, -7487, 157, -1035, -319, 139, 529, 350, 372, 779, -122, -2597, -460, -95, -122, -401, 42, -1130, -28, 642, 136, 424, -414, 638, -633, -364, 477, 633, 544, 625, 47, 829, 996, -533, 846, -681, -758, -494, -215, 31, -225, 261, -430, -276, -505, -619, -1280, -337, -246, -863, 229, -551, -640, -8, -145, 552, 1022, 146, -143, 445, 255, 525, 807, -378, -659, -260, 194, 491, 331, 270, -136, 492, 402, 205, 21, 535, 842, 519, 14, 205, 103, 894, -401, 417, 139, 463, -111, 1120, -411, -61, -454, -737, -1218, 1772, 307, 535, 281, -310, -2122, -170, -88, -457, 1109, 552, 2281, 826, -129, 421, -4511, -617, -8724, 1771, -365, -872, 88, -23, -1558, -850, -140, -448, 428, -805, -681, -406, -687, -1569, -1458, -294, 167, -1535, -1305, -727, -277, -453, -242, -171, -1050, 369, -856, 975, -156, -1183, -246, -400, 148, 657, 1060, -25, -907, 302, 710, -166, 94, 307, 88, 530, 767, -548, 612, -914, -89, 61};
constexpr int16_t bias = 113;

#endif // LOGISTIC_MODEL_H
